{"levels":[{"inputs":[0,0,0,0,0],"outputs":[0.6220365452049378,-0.44269190307681644,-0.14140728463407626,-0.1508302659320676,-0.022511848268633637,-0.04604570394046631],"biases":[0.7283201274323199,-0.47557390064233807,-0.1423612844181514,-0.15198992128336475,-0.02251565230173808,-0.046078287539893764],"weights":[[0.5862174414006065,0.5636211108572651,0.5828646065781936,-0.003326343226066897,0.316369117961689,-0.2966664856497679],[-0.5187354654993607,-0.22345422691336905,0.17461939575252594,-0.48038911001608997,0.017092452817828417,-0.3619285326689385],[0.22738271174614344,0.22421937786798946,-0.40048863075833435,-0.04189232272625133,-0.5964551959730581,0.5245651902427582],[0.5488511817554734,-0.5657514612470532,-0.7827839125703056,0.04163958177362348,-0.14796840105380354,0.6047100284869771],[-0.5703209506221539,-0.1558612470182814,-0.6654643684497387,0.22931151932187294,-0.3986461467858359,-0.607862381849225]]},{"inputs":[0.6220365452049378,-0.44269190307681644,-0.14140728463407626,-0.1508302659320676,-0.022511848268633637,-0.04604570394046631],"outputs":[0.5897386901132011,-0.7795806495301226,0.19216508551516465],"biases":[0.3474168353995172,-0.5777677253486481,0.10744874099440535],"weights":[[-0.23134828691510345,-0.39716773880549366,0.7321520907444758],[-0.7124986913951487,0.5311201203048646,0.7698508377874556],[-0.4430472011543022,0.2985899576235915,0.6015906871513941],[-0.6094852959621541,-0.42300201212393296,-0.6003191350679142],[0.10857333448687112,0.5744949772700949,0.6114612999651206],[-0.13472324336246433,-0.15195349704966227,0.416866827368843]]}]}