{"levels":[{"inputs":[0,0,0,0,0],"outputs":[0.12211001753434911,0.4296340985188385,0.416454214508566,-0.28706603762549415,-0.19404409001816034,0.4533621550149355],"biases":[0.12272242752201411,0.459447864024733,0.4433945400660317,-0.29536586041590374,-0.19653609041476586,0.4889241853693359],"weights":[[0.019508343215259766,-0.31528977145179343,-0.45651753288229224,0.33986139588474407,-0.12200570980429148,0.38742907177044833],[-0.6543016319119896,0.5399861172595827,-0.2822935109365622,0.5473997746965283,0.18012597385364212,-0.00326540975494935],[0.516840960072883,-0.2679450512814512,-0.4152056960113717,-0.5355553052220201,-0.44646775016540385,-0.3979358030440151],[0.360963316569528,0.6183693981302207,0.23604927051990188,-0.7897928194580668,-0.6273108469175195,0.1659231180676986],[0.5333766119506773,0.6709055014781182,0.51354950377356,0.010598781292307773,-0.4186705830738249,-0.42215981542156933]]},{"inputs":[0.12211001753434911,0.4296340985188385,0.416454214508566,-0.28706603762549415,-0.19404409001816034,0.4533621550149355],"outputs":[0.2760573552291179,-0.6468677425721673,-0.017976931385192598],"biases":[-0.41206185306650517,-0.17394989840446407,0.6552780708904908],"weights":[[0.44979017152159506,-0.10565621447417295,-0.7605898423408255],[0.5604155010646952,-0.8800292637451711,-0.4198189143266774],[0.3063006657585573,-0.5527450428966545,-0.4329521091669268],[0.19186578829408077,-0.19285200812446568,0.7242555195185515],[0.12047887031869613,-0.1466102674371445,-0.10472266602649566],[0.7734867973983812,-0.12918775873413763,-0.07084777748339319]]}]}