{"levels":[{"inputs":[0.6691620342757845,0,0,0,0],"outputs":[-0.5832701524728738,0.36985841358399374,-0.29032762379472876,-0.4948377200968647,0.06850218150092263,0.773933588285659],"biases":[-0.07721955216578613,0.6520034740114902,-0.9611404194025226,-0.17709884902702755,0.5815738084097553,0.8172865863727119],"weights":[[-0.8819765429541391,-0.3941413213463838,0.9896204173986698,-0.5459780083324817,-0.7665769245568246,0.31797436064567286],[-0.97401217324672,-0.5404901104864379,0.7351950274786709,-0.061980606125503046,-0.9355202206398776,-0.8337127906498358],[-0.2879990515994535,-0.1821045879892358,0.032114843704171836,-0.7654791712744666,-0.9591025858148945,-0.49558204511294957],[-0.8889331380931595,0.9524275450913169,0.6193028198474022,-0.6197874354374466,0.41688501193613603,0.30779656983561576],[-0.15594332100157238,-0.1828945288046664,0.10363406485111049,0.8031315581022718,0.1311398192160349,0.5129925899795893]]},{"inputs":[-0.5832701524728738,0.36985841358399374,-0.29032762379472876,-0.4948377200968647,0.06850218150092263,0.773933588285659],"outputs":[0.7542532933673217,-0.88297090227672,-0.17423732767921277],"biases":[-0.3446617181428031,-0.5798970739236902,0.6909109437191243],"weights":[[-0.20739699081399499,0.6880159488064137,-0.16355459913231862],[0.3003493510045334,-0.19689650047191454,-0.4392222780236579],[-0.5357692736108415,0.3893893365460399,0.58488579898507],[-0.29896800531041,0.8037561391516523,-0.2644598130149809],[0.7333098545511185,0.19343834882733146,-0.3256360488463905],[0.958263779169946,0.20991041315998382,-0.9543973593055477]]}]}